<Nnet> 
<Splice> 495 45 
[ -5 -4 -3 -2 -1 0 1 2 3 4 5 ]
<AddShift> 495 495 
<LearnRateCoef> 0  [ -13.71079 -14.56192 -14.8138 -14.72688 -14.13121 -13.70721 -13.38681 -13.23532 -13.33119 -13.46199 -13.50091 -13.54183 -13.38673 -13.03496 -11.65649 -0.0003426429 -0.000411438 -0.000396625 -0.0003237699 -0.000241517 -0.0001938098 -0.0001437037 -0.0001518727 -0.0001338497 -0.0001088869 -9.060401e-05 -0.0001495673 -0.0001415415 -0.0001004223 -9.09501e-05 4.662343e-05 5.201143e-05 5.03651e-05 4.683695e-05 3.795798e-05 3.857354e-05 3.202778e-05 3.464229e-05 3.853352e-05 4.058764e-05 2.773772e-05 3.311844e-05 3.177278e-05 2.209612e-05 1.794235e-05 -13.71109 -14.56228 -14.81415 -14.72717 -14.13143 -13.70738 -13.38694 -13.23546 -13.33131 -13.4621 -13.50102 -13.54198 -13.38686 -13.03504 -11.65657 -0.0002938087 -0.0003553513 -0.0003393446 -0.0002710753 -0.0001976157 -0.0001495129 -0.0001071429 -0.0001129808 -9.705967e-05 -7.191127e-05 -6.067995e-05 -0.0001155339 -0.0001071376 -7.349556e-05 -6.83238e-05 4.609521e-05 5.160225e-05 4.871524e-05 4.26225e-05 3.293003e-05 3.125061e-05 2.666232e-05 2.982374e-05 3.162022e-05 3.279285e-05 2.28696e-05 2.890353e-05 2.697063e-05 1.861501e-05 1.552097e-05 -13.71134 -14.56259 -14.81446 -14.72742 -14.13161 -13.70751 -13.38704 -13.23556 -13.3314 -13.46217 -13.50109 -13.54209 -13.38696 -13.03511 -11.65663 -0.0002484803 -0.0003015959 -0.0002868383 -0.0002259893 -0.0001630101 -0.0001217393 -8.30822e-05 -8.402532e-05 -7.244139e-05 -4.812836e-05 -3.953112e-05 -8.938471e-05 -8.237933e-05 -5.677859e-05 -5.45422e-05 4.145849e-05 4.644149e-05 4.266286e-05 3.465991e-05 2.571888e-05 2.175586e-05 1.944921e-05 2.209499e-05 2.200326e-05 2.249873e-05 1.473985e-05 2.126459e-05 1.871413e-05 1.296588e-05 1.083343e-05 -13.71156 -14.56286 -14.81471 -14.72763 -14.13176 -13.70763 -13.38712 -13.23563 -13.33146 -13.46221 -13.50113 -13.54217 -13.38703 -13.03516 -11.65668 -0.0002092351 -0.0002575213 -0.000244893 -0.0001929995 -0.0001373619 -0.000103584 -6.66793e-05 -6.600543e-05 -5.64543e-05 -3.407762e-05 -2.989197e-05 -7.398865e-05 -6.881296e-05 -4.674125e-05 -4.592009e-05 3.397007e-05 3.714861e-05 3.308364e-05 2.465454e-05 1.809411e-05 1.41393e-05 1.24535e-05 1.402061e-05 1.309314e-05 1.265629e-05 5.551798e-06 1.190693e-05 9.43094e-06 7.50995e-06 6.267649e-06 -13.71175 -14.56308 -14.81493 -14.7278 -14.13189 -13.70773 -13.38718 -13.23569 -13.33152 -13.46225 -13.50117 -13.54224 -13.3871 -13.03521 -11.65673 -0.0001801221 -0.0002254042 -0.0002160425 -0.0001724082 -0.0001210231 -9.146462e-05 -5.62165e-05 -5.572425e-05 -4.906733e-05 -2.705009e-05 -2.959265e-05 -6.756477e-05 -6.491981e-05 -4.106608e-05 -4.131966e-05 2.689582e-05 2.796707e-05 2.420351e-05 1.622459e-05 1.231314e-05 1.037718e-05 8.138941e-06 8.413579e-06 7.006718e-06 5.817778e-06 -1.408877e-06 4.450361e-06 2.575995e-06 4.38602e-06 3.639375e-06 -13.7119 -14.56328 -14.81513 -14.72796 -14.13199 -13.7078 -13.38723 -13.23574 -13.33156 -13.46227 -13.5012 -13.5423 -13.38716 -13.03524 -11.65676 -0.0001599621 -0.0002065171 -0.0002003105 -0.0001633763 -0.0001137951 -8.346574e-05 -5.16003e-05 -5.157802e-05 -4.641795e-05 -2.610079e-05 -3.607966e-05 -6.865151e-05 -6.722734e-05 -3.916999e-05 -4.019304e-05 2.205143e-05 2.191745e-05 1.874504e-05 1.14537e-05 9.254568e-06 9.142299e-06 5.949945e-06 5.767542e-06 3.506544e-06 1.628024e-06 -5.133635e-06 4.16325e-08 -1.073238e-06 3.034233e-06 2.445167e-06 -13.71206 -14.56349 -14.81532 -14.72812 -14.1321 -13.70788 -13.38727 -13.23578 -13.3316 -13.46229 -13.50123 -13.54237 -13.38723 -13.03528 -11.6568 -0.0001398021 -0.00018763 -0.0001845785 -0.0001543445 -0.0001065672 -7.546686e-05 -4.698409e-05 -4.743178e-05 -4.376858e-05 -2.51515e-05 -4.256668e-05 -6.973826e-05 -6.953486e-05 -3.727391e-05 -3.906642e-05 1.720704e-05 1.586783e-05 1.328657e-05 6.682806e-06 6.195999e-06 7.907422e-06 3.760949e-06 3.121505e-06 6.369913e-09 -2.56173e-06 -8.858391e-06 -4.367096e-06 -4.72247e-06 1.682446e-06 1.250959e-06 -13.7122 -14.56369 -14.81552 -14.72828 -14.13222 -13.70797 -13.38733 -13.23584 -13.33165 -13.46232 -13.50128 -13.54245 -13.3873 -13.03532 -11.65684 -0.0001191383 -0.0001668207 -0.0001668977 -0.000144764 -9.831755e-05 -6.587039e-05 -4.154617e-05 -4.131303e-05 -4.157153e-05 -2.688603e-05 -4.907334e-05 -7.269399e-05 -7.187232e-05 -3.346558e-05 -3.48213e-05 1.217343e-05 1.002408e-05 8.526499e-06 3.420536e-06 4.903379e-06 8.411354e-06 3.610777e-06 1.65065e-06 -2.450522e-06 -5.927203e-06 -1.169991e-05 -7.849582e-06 -7.869852e-06 8.197063e-07 5.321147e-07 -13.71235 -14.56387 -14.81571 -14.72845 -14.13234 -13.70805 -13.38739 -13.2359 -13.33171 -13.46236 -13.50135 -13.54253 -13.38738 -13.03536 -11.65689 -9.989044e-05 -0.0001473403 -0.0001466599 -0.0001301232 -8.391758e-05 -5.262803e-05 -3.357581e-05 -3.444209e-05 -4.049034e-05 -2.940302e-05 -5.465499e-05 -7.465175e-05 -7.343681e-05 -2.925375e-05 -3.199259e-05 7.950081e-06 5.272582e-06 5.692686e-06 1.574612e-06 4.797284e-06 1.038184e-05 4.723256e-06 1.321278e-06 -3.222257e-06 -7.632321e-06 -1.367151e-05 -9.748181e-06 -1.032496e-05 3.11323e-07 -1.21398e-07 -13.71249 -14.56406 -14.81589 -14.72861 -14.13245 -13.70813 -13.38745 -13.23594 -13.33176 -13.46242 -13.50141 -13.54262 -13.38745 -13.0354 -11.65691 -8.088076e-05 -0.0001261661 -0.0001242086 -0.0001104695 -6.376302e-05 -3.251458e-05 -1.667755e-05 -2.207134e-05 -3.363481e-05 -2.740739e-05 -5.628294e-05 -7.247727e-05 -7.287853e-05 -2.279844e-05 -2.607885e-05 5.700552e-06 2.275975e-06 4.199664e-06 4.258665e-07 5.18259e-06 1.333115e-05 6.563949e-06 1.296446e-06 -2.609921e-06 -7.471692e-06 -1.493408e-05 -1.05974e-05 -1.241601e-05 -2.33326e-07 -1.182863e-06 -13.71263 -14.56424 -14.81606 -14.72875 -14.13254 -13.70821 -13.3875 -13.236 -13.33182 -13.46247 -13.50148 -13.5427 -13.38753 -13.03543 -11.65696 -5.744867e-05 -9.941644e-05 -9.22583e-05 -8.596612e-05 -4.004232e-05 -7.705071e-06 2.480874e-06 -5.756807e-06 -2.146684e-05 -2.07082e-05 -5.554798e-05 -6.538397e-05 -6.993524e-05 -1.473698e-05 -1.982172e-05 6.174912e-06 1.721553e-06 3.325517e-06 -7.637035e-07 5.280854e-06 1.677688e-05 8.730203e-06 2.189394e-06 -7.4362e-07 -6.119403e-06 -1.501854e-05 -1.122168e-05 -1.387961e-05 6.887408e-09 -1.170788e-06 ]
<Rescale> 495 495 
<LearnRateCoef> 0  [ 0.2982734 0.2718363 0.2597209 0.256355 0.2680413 0.2859029 0.3029645 0.3125629 0.3152503 0.3176684 0.3279259 0.3351132 0.3534688 0.4102274 0.4498347 1.837591 1.631589 1.480444 1.415155 1.474569 1.5803 1.670614 1.708955 1.683386 1.667464 1.7439 1.832727 1.915222 2.17634 2.364308 4.703182 4.180522 3.77377 3.610757 3.788733 4.048718 4.240558 4.305491 4.216176 4.147921 4.313426 4.522121 4.713626 5.308316 5.712274 0.2982799 0.2718437 0.2597285 0.2563601 0.2680432 0.285903 0.3029636 0.312562 0.3152511 0.3176688 0.3279247 0.3351132 0.3534692 0.4102248 0.4498322 1.8374 1.631418 1.480286 1.415025 1.474446 1.580162 1.670473 1.708812 1.683247 1.667326 1.743755 1.832555 1.915049 2.176162 2.364124 4.702868 4.180257 3.773557 3.610566 3.788544 4.048496 4.24035 4.305296 4.215968 4.147696 4.313167 4.521841 4.713339 5.308005 5.711953 0.2982853 0.2718498 0.259735 0.2563645 0.2680451 0.2859024 0.3029616 0.3125607 0.3152504 0.3176682 0.3279215 0.3351139 0.3534681 0.4102224 0.4498271 1.837214 1.631257 1.480155 1.41492 1.474348 1.580061 1.670366 1.708708 1.683148 1.667224 1.743643 1.832422 1.914918 2.176041 2.364006 4.702575 4.180024 3.773352 3.610383 3.788367 4.048273 4.240137 4.305103 4.215758 4.147475 4.312921 4.521581 4.713058 5.30769 5.711581 0.2982894 0.2718553 0.2597399 0.2563674 0.268046 0.2859021 0.302958 0.3125578 0.3152484 0.3176662 0.3279177 0.3351125 0.3534659 0.4102187 0.4498208 1.837074 1.631131 1.480064 1.414848 1.474283 1.579999 1.670299 1.708649 1.683092 1.667157 1.743555 1.832327 1.914827 2.175958 2.363913 4.702276 4.179794 3.773152 3.610215 3.788191 4.048077 4.239933 4.304911 4.215561 4.147291 4.31272 4.521348 4.712814 5.307436 5.711298 0.2982918 0.271859 0.2597431 0.2563684 0.2680456 0.2859004 0.3029549 0.3125548 0.3152459 0.317664 0.3279134 0.3351103 0.3534647 0.410217 0.4498188 1.836992 1.631061 1.480018 1.414812 1.474248 1.579966 1.670266 1.708625 1.683067 1.667125 1.743501 1.832268 1.914767 2.175896 2.363835 4.702041 4.179616 3.773015 3.610103 3.788076 4.047961 4.239805 4.304795 4.215445 4.147184 4.312607 4.52121 4.712676 5.307302 5.711155 0.2982915 0.2718618 0.2597455 0.2563689 0.2680439 0.2858972 0.3029502 0.3125515 0.3152425 0.3176597 0.3279091 0.3351069 0.3534618 0.4102124 0.4498133 1.836964 1.631043 1.480006 1.414805 1.474241 1.579958 1.670261 1.708624 1.683066 1.667122 1.743485 1.832244 1.914745 2.175877 2.363802 4.701963 4.179555 3.772979 3.610072 3.788046 4.047939 4.239781 4.304778 4.215426 4.147163 4.312582 4.52118 4.712645 5.307275 5.711133 0.298292 0.271865 0.2597476 0.2563696 0.2680423 0.2858942 0.3029453 0.3125477 0.3152391 0.3176558 0.327904 0.3351036 0.3534595 0.4102098 0.4498093 1.836936 1.631025 1.479994 1.414797 1.474234 1.579949 1.670256 1.708624 1.683065 1.66712 1.743468 1.83222 1.914723 2.175857 2.363769 4.701885 4.179493 3.772943 3.610041 3.788016 4.047917 4.239758 4.304761 4.215408 4.147142 4.312557 4.52115 4.712613 5.307248 5.71111 0.2982909 0.2718672 0.25975 0.2563703 0.2680417 0.2858929 0.3029433 0.3125463 0.3152365 0.3176532 0.3279021 0.3351008 0.353457 0.4102056 0.4498052 1.836921 1.631026 1.479996 1.414805 1.474242 1.579959 1.670271 1.708641 1.683081 1.667138 1.743472 1.832217 1.914724 2.175857 2.363754 4.701874 4.17949 3.772957 3.610051 3.788031 4.047947 4.239792 4.304802 4.215442 4.147164 4.312571 4.521159 4.712616 5.307269 5.71115 0.29829 0.2718699 0.2597528 0.2563719 0.2680415 0.2858915 0.3029406 0.3125453 0.3152354 0.3176509 0.3279011 0.3350988 0.353455 0.410204 0.4498018 1.836907 1.631029 1.480004 1.414818 1.474256 1.579975 1.670293 1.708665 1.683101 1.667158 1.743486 1.832225 1.914732 2.175861 2.363748 4.701921 4.179538 3.773001 3.610093 3.788085 4.048025 4.239876 4.304887 4.215516 4.147211 4.312603 4.521194 4.712646 5.307313 5.711206 0.2982897 0.271872 0.2597554 0.256374 0.2680409 0.2858906 0.3029393 0.3125431 0.3152344 0.3176502 0.3278988 0.335097 0.3534538 0.4102004 0.4497965 1.836898 1.631037 1.480019 1.414832 1.474275 1.579999 1.67032 1.708694 1.683122 1.667176 1.743501 1.832236 1.914741 2.17587 2.363752 4.702016 4.17964 3.773074 3.610172 3.788179 4.04814 4.240015 4.30503 4.215641 4.14729 4.312667 4.521267 4.712709 5.307386 5.711281 0.2982903 0.2718756 0.2597581 0.256375 0.2680401 0.2858898 0.3029384 0.3125421 0.3152338 0.3176506 0.3278989 0.3350962 0.3534525 0.4102005 0.4497959 1.83691 1.631059 1.480041 1.414854 1.474304 1.580039 1.670359 1.708731 1.683147 1.667193 1.743513 1.83225 1.914754 2.175881 2.36375 4.702139 4.179767 3.773168 3.610266 3.788303 4.048278 4.240183 4.305202 4.215783 4.147393 4.312767 4.521356 4.712776 5.307477 5.711397 ]
</Nnet> 
