<Nnet> 
<Splice> 495 45 
[ -5 -4 -3 -2 -1 0 1 2 3 4 5 ]
<AddShift> 495 495 
<LearnRateCoef> 0  [ -14.15695 -14.92647 -15.11871 -15.0201 -14.39599 -13.96456 -13.65858 -13.49469 -13.57219 -13.70008 -13.76433 -13.84541 -13.73523 -13.39241 -12.00223 -0.0003380363 -0.0003968121 -0.0003777904 -0.0003150455 -0.0002582675 -0.0002073504 -0.0001627858 -0.0001732362 -0.0001345881 -8.934303e-05 -5.768695e-05 -9.753559e-05 -0.0001010278 -7.705892e-05 -7.648964e-05 4.19386e-05 4.272522e-05 4.214805e-05 4.218308e-05 3.937253e-05 3.566544e-05 3.018998e-05 3.418063e-05 3.628725e-05 3.487649e-05 1.959635e-05 2.216578e-05 2.084421e-05 1.466262e-05 1.390617e-05 -14.15725 -14.92682 -15.11905 -15.02039 -14.39622 -13.96474 -13.65873 -13.49485 -13.57232 -13.70016 -13.76441 -13.84551 -13.73534 -13.39249 -12.00231 -0.0002972338 -0.0003511731 -0.0003317236 -0.0002732506 -0.0002195877 -0.0001724961 -0.0001339883 -0.0001398133 -0.0001054145 -6.392047e-05 -4.117991e-05 -7.951466e-05 -7.972927e-05 -5.920475e-05 -5.997018e-05 4.084804e-05 4.200557e-05 3.902038e-05 3.58593e-05 3.254217e-05 2.673886e-05 2.349065e-05 2.834003e-05 2.743335e-05 2.504595e-05 1.32854e-05 1.557549e-05 1.503513e-05 1.216016e-05 1.178053e-05 -14.15751 -14.92715 -15.11936 -15.02065 -14.39643 -13.96491 -13.65886 -13.49497 -13.57242 -13.70023 -13.76447 -13.84561 -13.73543 -13.39256 -12.00237 -0.0002593044 -0.0003100498 -0.0002925034 -0.0002398346 -0.0001905377 -0.0001536219 -0.0001173079 -0.0001162078 -8.814089e-05 -4.998341e-05 -3.102653e-05 -6.981732e-05 -6.769211e-05 -4.763686e-05 -4.976951e-05 3.659648e-05 3.814844e-05 3.399416e-05 2.812448e-05 2.478383e-05 1.82291e-05 1.636939e-05 2.097335e-05 1.809236e-05 1.560977e-05 6.758852e-06 9.11447e-06 8.405166e-06 8.768175e-06 7.960079e-06 -14.15775 -14.92743 -15.11963 -15.02088 -14.39661 -13.96506 -13.65898 -13.49508 -13.5725 -13.70029 -13.76451 -13.84569 -13.7355 -13.3926 -12.00241 -0.0002260243 -0.0002737664 -0.0002592055 -0.0002149463 -0.0001682074 -0.0001402946 -0.0001054945 -0.0001004294 -7.703601e-05 -4.317486e-05 -2.825398e-05 -6.603978e-05 -6.22351e-05 -3.949588e-05 -4.316031e-05 2.98818e-05 3.128315e-05 2.688139e-05 1.995315e-05 1.75596e-05 1.22279e-05 1.033941e-05 1.419036e-05 1.073675e-05 8.140239e-06 6.251904e-07 3.36386e-06 2.017093e-06 5.079948e-06 3.867944e-06 -14.15796 -14.92768 -15.11987 -15.02108 -14.39677 -13.9652 -13.65908 -13.49518 -13.57258 -13.70034 -13.76455 -13.84576 -13.73556 -13.39264 -12.00246 -0.0002010587 -0.0002453929 -0.0002340924 -0.0001980775 -0.0001529497 -0.0001287506 -9.723998e-05 -8.962954e-05 -7.103031e-05 -3.901818e-05 -3.100741e-05 -6.530844e-05 -6.324938e-05 -3.522373e-05 -4.123223e-05 2.345797e-05 2.47439e-05 2.060151e-05 1.339738e-05 1.215912e-05 9.557129e-06 6.775419e-06 9.655435e-06 6.032968e-06 3.286441e-06 -3.940624e-06 -4.971354e-07 -2.310809e-06 2.590228e-06 1.029956e-06 -14.15814 -14.92791 -15.12008 -15.02126 -14.39691 -13.96531 -13.65917 -13.49525 -13.57265 -13.70037 -13.76458 -13.84582 -13.73563 -13.39268 -12.0025 -0.00018358 -0.0002276304 -0.0002202657 -0.0001903383 -0.0001454335 -0.0001214096 -9.342696e-05 -8.381102e-05 -6.847498e-05 -3.88037e-05 -3.817055e-05 -6.824787e-05 -6.876475e-05 -3.496592e-05 -4.299166e-05 1.879544e-05 1.996364e-05 1.632457e-05 9.349115e-06 8.809857e-06 8.174047e-06 4.540708e-06 7.183787e-06 3.07285e-06 1.23534e-07 -6.477675e-06 -2.869554e-06 -4.675552e-06 1.172775e-06 -6.216241e-07 -14.15832 -14.92813 -15.1203 -15.02145 -14.39705 -13.96543 -13.65925 -13.49533 -13.57271 -13.70041 -13.76462 -13.84589 -13.7357 -13.39271 -12.00254 -0.0001661014 -0.0002098679 -0.000206439 -0.0001825991 -0.0001379174 -0.0001140686 -8.961393e-05 -7.79925e-05 -6.591964e-05 -3.858921e-05 -4.533369e-05 -7.118731e-05 -7.428012e-05 -3.470812e-05 -4.475109e-05 1.413292e-05 1.518338e-05 1.204763e-05 5.300846e-06 5.460592e-06 6.790965e-06 2.305997e-06 4.712138e-06 1.127317e-07 -3.039373e-06 -9.014726e-06 -5.241971e-06 -7.040295e-06 -2.446779e-07 -2.273204e-06 -14.15849 -14.92835 -15.12051 -15.02164 -14.3972 -13.96555 -13.65936 -13.49542 -13.57278 -13.70045 -13.76467 -13.84597 -13.73577 -13.39275 -12.00259 -0.0001495259 -0.0001917104 -0.0001914074 -0.0001759396 -0.0001316748 -0.0001067654 -8.660454e-05 -7.032855e-05 -6.422847e-05 -4.277108e-05 -5.347871e-05 -7.744793e-05 -8.009801e-05 -3.389021e-05 -4.450942e-05 9.414501e-06 1.084731e-05 8.180017e-06 2.500476e-06 3.134157e-06 6.196028e-06 1.272828e-06 2.030988e-06 -2.772697e-06 -5.735756e-06 -1.103573e-05 -6.426825e-06 -8.754406e-06 -9.269037e-07 -3.419274e-06 -14.15865 -14.92856 -15.12072 -15.02184 -14.39734 -13.96568 -13.65946 -13.4955 -13.57286 -13.70051 -13.76474 -13.84606 -13.73586 -13.39279 -12.00264 -0.0001353633 -0.0001742204 -0.0001744534 -0.000166188 -0.0001215833 -9.823309e-05 -8.334212e-05 -6.534043e-05 -6.576691e-05 -4.760778e-05 -6.069563e-05 -8.203647e-05 -8.406291e-05 -3.110939e-05 -4.531492e-05 5.209637e-06 7.076416e-06 5.410366e-06 6.314478e-07 1.389104e-06 6.117374e-06 5.992969e-07 -7.649466e-07 -4.90515e-06 -7.280946e-06 -1.300592e-05 -6.213512e-06 -1.021159e-05 -1.379551e-06 -4.298247e-06 -14.15882 -14.92877 -15.12093 -15.02204 -14.3975 -13.9658 -13.65956 -13.49558 -13.57294 -13.70058 -13.76481 -13.84616 -13.73595 -13.39283 -12.00268 -0.0001202738 -0.0001541757 -0.000156414 -0.0001517429 -0.0001083021 -8.637462e-05 -7.41985e-05 -6.006193e-05 -6.531712e-05 -4.978448e-05 -6.579635e-05 -8.152321e-05 -8.570114e-05 -2.563389e-05 -4.306928e-05 2.401888e-06 3.963289e-06 3.013232e-06 -3.992486e-07 -8.972843e-08 6.606492e-06 6.359351e-07 -3.259265e-06 -5.879972e-06 -7.201481e-06 -1.461541e-05 -5.324461e-06 -1.203947e-05 -2.359268e-06 -5.537926e-06 -14.159 -14.92899 -15.12113 -15.02222 -14.39763 -13.96592 -13.65967 -13.49568 -13.57303 -13.70065 -13.76488 -13.84626 -13.73603 -13.39287 -12.00273 -0.0001035315 -0.0001323849 -0.000132825 -0.0001355277 -9.434559e-05 -7.361672e-05 -6.659912e-05 -5.45798e-05 -6.252863e-05 -4.973336e-05 -7.219209e-05 -7.823065e-05 -8.736931e-05 -2.007779e-05 -4.00132e-05 1.168236e-06 1.964255e-06 1.652692e-07 -1.523557e-06 -2.114441e-06 7.922766e-06 1.399889e-06 -3.619001e-06 -4.986639e-06 -6.547979e-06 -1.534075e-05 -5.200676e-06 -1.411551e-05 -3.805995e-06 -6.398679e-06 ]
<Rescale> 495 495 
<LearnRateCoef> 0  [ 0.3018942 0.2724957 0.2604044 0.2582036 0.2720728 0.2915061 0.3108327 0.3224915 0.3256919 0.3281102 0.3387601 0.3444331 0.365531 0.4367792 0.4878866 1.841559 1.641364 1.50172 1.439657 1.497578 1.603101 1.704281 1.759648 1.746363 1.733746 1.811294 1.90442 1.991843 2.286282 2.484644 4.738861 4.227376 3.849663 3.690992 3.858479 4.119867 4.344031 4.450573 4.387844 4.325987 4.497225 4.722137 4.929325 5.610787 6.036767 0.3018984 0.2725002 0.2604094 0.2582065 0.2720748 0.2915064 0.3108318 0.3224909 0.325692 0.3281088 0.338757 0.3444293 0.3655271 0.4367717 0.4878835 1.841391 1.641203 1.501562 1.439523 1.49744 1.602959 1.70412 1.759481 1.746208 1.733616 1.81117 1.904267 1.991686 2.286102 2.484453 4.738566 4.227111 3.84944 3.690783 3.858286 4.119639 4.343806 4.450377 4.387642 4.325787 4.496995 4.721909 4.929076 5.610514 6.036488 0.3019023 0.2725052 0.2604143 0.2582099 0.2720773 0.2915075 0.3108314 0.3224894 0.3256908 0.328108 0.3387528 0.344426 0.3655224 0.4367647 0.4878777 1.84122 1.641051 1.501431 1.43941 1.497329 1.602849 1.70399 1.759359 1.746098 1.733515 1.811067 1.904153 1.991574 2.285971 2.48434 4.738289 4.226882 3.849239 3.690594 3.858102 4.119428 4.343583 4.45019 4.387428 4.325613 4.496809 4.721709 4.928845 5.610261 6.036143 0.3019056 0.2725091 0.2604178 0.2582125 0.2720784 0.2915087 0.3108294 0.3224885 0.3256894 0.3281061 0.3387486 0.3444217 0.3655165 0.4367573 0.4878694 1.841084 1.640926 1.501344 1.439331 1.497259 1.602783 1.703914 1.759295 1.746043 1.733454 1.810995 1.904084 1.991504 2.2859 2.484267 4.738023 4.226668 3.849026 3.690414 3.857909 4.119226 4.343345 4.449972 4.387205 4.325443 4.496636 4.7215 4.92863 5.61 6.03583 0.3019073 0.2725126 0.2604211 0.2582134 0.2720784 0.2915084 0.310828 0.3224872 0.3256882 0.3281036 0.3387437 0.3444179 0.3655119 0.4367529 0.4878653 1.841004 1.640855 1.501301 1.439291 1.497225 1.602752 1.70388 1.759274 1.746021 1.733431 1.810956 1.904044 1.991462 2.285857 2.484213 4.737808 4.226503 3.848873 3.690285 3.857778 4.11909 4.343178 4.449826 4.387066 4.325327 4.496519 4.72137 4.928503 5.609836 6.035658 0.3019074 0.2725146 0.2604227 0.2582143 0.2720772 0.2915073 0.3108245 0.322485 0.3256854 0.3280992 0.3387389 0.3444103 0.3655058 0.4367459 0.4878591 1.840981 1.640837 1.501291 1.439281 1.497217 1.602744 1.703873 1.759273 1.746018 1.733429 1.810946 1.904026 1.991449 2.285846 2.484195 4.737735 4.226445 3.848831 3.690243 3.857742 4.119056 4.343133 4.449794 4.387043 4.325305 4.496496 4.721352 4.928481 5.609801 6.035629 0.3019081 0.2725164 0.2604245 0.2582152 0.2720765 0.2915065 0.3108217 0.3224822 0.3256825 0.3280956 0.3387336 0.3444041 0.3655006 0.4367397 0.4878554 1.840956 1.64082 1.501281 1.439271 1.49721 1.602736 1.703866 1.759271 1.746015 1.733428 1.810935 1.904008 1.991435 2.285835 2.484178 4.737662 4.226387 3.848789 3.690202 3.857706 4.119021 4.343089 4.449762 4.38702 4.325283 4.496473 4.721334 4.928459 5.609766 6.035599 0.3019068 0.2725182 0.2604265 0.2582161 0.2720757 0.2915055 0.3108204 0.3224804 0.3256812 0.328093 0.3387314 0.3443989 0.365496 0.4367337 0.4878506 1.840944 1.640815 1.501282 1.439272 1.497212 1.602738 1.703872 1.759283 1.746022 1.733443 1.810952 1.904016 1.991447 2.285843 2.484181 4.737659 4.226396 3.848804 3.690207 3.857717 4.119038 4.343096 4.449779 4.387055 4.325312 4.496493 4.721364 4.928478 5.609788 6.035645 0.3019068 0.2725197 0.2604293 0.2582173 0.2720754 0.2915054 0.3108178 0.3224781 0.3256799 0.3280902 0.3387292 0.3443943 0.3654927 0.4367281 0.4878481 1.84093 1.640814 1.501286 1.439275 1.497222 1.602747 1.703884 1.759298 1.746037 1.733465 1.81098 1.904036 1.991469 2.285858 2.48419 4.737708 4.226445 3.848845 3.690236 3.857747 4.119081 4.343123 4.449809 4.387106 4.325349 4.496523 4.72141 4.928511 5.609828 6.035707 0.3019073 0.2725219 0.2604316 0.2582192 0.2720755 0.2915052 0.3108175 0.3224747 0.3256775 0.3280891 0.3387268 0.3443913 0.3654881 0.4367234 0.4878424 1.840921 1.640822 1.501299 1.439284 1.497241 1.602768 1.703902 1.759316 1.746057 1.733486 1.811005 1.904059 1.991494 2.285884 2.484213 4.737779 4.226513 3.84889 3.690278 3.857788 4.119125 4.343166 4.449862 4.387171 4.325406 4.49659 4.721493 4.928575 5.609873 6.035767 0.3019094 0.2725253 0.2604342 0.2582214 0.2720754 0.2915065 0.3108177 0.3224749 0.3256783 0.3280891 0.3387274 0.3443884 0.365485 0.4367201 0.4878418 1.840923 1.640833 1.501312 1.439293 1.497256 1.602788 1.703911 1.759323 1.746066 1.733491 1.81101 1.904068 1.991508 2.285901 2.484223 4.737872 4.226604 3.848947 3.690325 3.857856 4.119202 4.343252 4.449948 4.387271 4.325503 4.496703 4.721601 4.928653 5.609945 6.035865 ]
</Nnet> 
